<?xml version="1.0"?>
<opencv_storage>
<cascade>
  <stageType>BOOST</stageType>
  <featureType>HAAR</featureType>
  <height>20</height>
  <width>20</width>
  <stageParams>
    <boostType>GAB</boostType>
    <minHitRate>9.9900001287460327e-01</minHitRate>
    <maxFalseAlarm>5.0000000000000000e-01</maxFalseAlarm>
    <weightTrimRate>9.4999999999999996e-01</weightTrimRate>
    <maxDepth>1</maxDepth>
    <maxWeakCount>100</maxWeakCount></stageParams>
  <featureParams>
    <maxCatCount>0</maxCatCount>
    <featSize>1</featSize>
    <mode>ALL</mode></featureParams>
  <stageNum>25</stageNum>
  <stages>
    <!-- stage 0 -->
    <_>
      <maxWeakCount>4</maxWeakCount>
      <stageThreshold>8.1508718430995941e-02</stageThreshold>
      <weakClassifiers>
        <_>
          <internalNodes>
            0 -1 49 3.1254585832357407e-02</internalNodes>
          <leafValues>
            -6.7741936445236206e-01 8.9542484283447266e-01</leafValues></_>
        <_>
          <internalNodes>
            0 -1 85 -1.9076526165008545e-01</internalNodes>
          <leafValues>
            8.1176614761352539e-01 -7.9917538166046143e-01</leafValues></_>
        <_>
          <internalNodes>
            0 -1 52 3.1860037706792355e-03</internalNodes>
          <leafValues>
            -9.1554570198059082e-01 6.5500521659851074e-01</leafValues></_>
        <_>
          <internalNodes>
            0 -1 21 3.5299696028232574e-02</internalNodes>
          <leafValues>
            -6.3549673557281494e-01 9.0309822559356689e-01</leafValues></_></weakClassifiers></_>
    <!-- stage 1 -->
    <_>
      <maxWeakCount>2</maxWeakCount>
      <stageThreshold>8.5227310657501221e-02</stageThreshold>
      <weakClassifiers>
        <_>
          <internalNodes>
            0 -1 58 -3.1006172299385071e-02</internalNodes>
          <leafValues>
            9.0849673748016357e-01 -6.9892472028732300e-01</leafValues></_>
        <_>
          <internalNodes>
            0 -1 114 7.6258797198534012e-03</internalNodes>
          <leafValues>
            -8.1224942207336426e-01 7.8415203094482422e-01</leafValues></_></weakClassifiers></_>
    <!-- stage 2 -->
    <_>
      <maxWeakCount>2</maxWeakCount>
      <stageThreshold>5.7173673063516617e-02</stageThreshold>
      <weakClassifiers>
        <_>
          <internalNodes>
            0 -1 63 1.5501750633120537e-02</internalNodes>
          <leafValues>
            -6.6292136907577515e-01 8.4713375568389893e-01</leafValues></_>
        <_>
          <internalNodes>
            0 -1 11 2.3859644308686256e-02</internalNodes>
          <leafValues>
            -7.8996008634567261e-01 7.6421290636062622e-01</leafValues></_></weakClassifiers></_>
    <!-- stage 3 -->
    <_>
      <maxWeakCount>4</maxWeakCount>
      <stageThreshold>-5.1839847117662430e-02</stageThreshold>
      <weakClassifiers>
        <_>
          <internalNodes>
            0 -1 72 -8.1683509051799774e-03</internalNodes>
          <leafValues>
            8.5714286565780640e-01 -6.3043481111526489e-01</leafValues></_>
        <_>
          <internalNodes>
            0 -1 20 8.0025255680084229e-02</internalNodes>
          <leafValues>
            -5.4445213079452515e-01 8.7406390905380249e-01</leafValues></_>
        <_>
          <internalNodes>
            0 -1 106 7.2557334788143635e-03</internalNodes>
          <leafValues>
            -9.0609431266784668e-01 6.4648568630218506e-01</leafValues></_>
        <_>
          <internalNodes>
            0 -1 54 1.7021854873746634e-03</internalNodes>
          <leafValues>
            -7.2151005268096924e-01 6.1062532663345337e-01</leafValues></_></weakClassifiers></_>
    <!-- stage 4 -->
    <_>
      <maxWeakCount>3</maxWeakCount>
      <stageThreshold>-5.2656579017639160e-01</stageThreshold>
      <weakClassifiers>
        <_>
          <internalNodes>
            0 -1 40 -1.5506255626678467e-01</internalNodes>
          <leafValues>
            -6.1702126264572144e-01 8.6842107772827148e-01</leafValues></_>
        <_>
          <internalNodes>
            0 -1 48 9.9244445562362671e-02</internalNodes>
          <leafValues>
            -7.9375779628753662e-01 6.9237053394317627e-01</leafValues></_>
        <_>
          <internalNodes>
            0 -1 12 2.1437919139862061e-01</internalNodes>
          <leafValues>
            -5.0157862901687622e-01 8.8421326875686646e-01</leafValues></_></weakClassifiers></_>
    <!-- stage 5 -->
    <_>
      <maxWeakCount>4</maxWeakCount>
      <stageThreshold>-1.2268657982349396e-01</stageThreshold>
      <weakClassifiers>
        <_>
          <internalNodes>
            0 -1 4 -2.1256151795387268e-01</internalNodes>
          <leafValues>
            -4.6938776969909668e-01 8.1081080436706543e-01</leafValues></_>
        <_>
          <internalNodes>
            0 -1 7 3.7022700905799866e-01</internalNodes>
          <leafValues>
            -4.3006840348243713e-01 7.9393291473388672e-01</leafValues></_>
        <_>
          <internalNodes>
            0 -1 51 8.9735612273216248e-03</internalNodes>
          <leafValues>
            -9.3513852357864380e-01 4.6377158164978027e-01</leafValues></_>
        <_>
          <internalNodes>
            0 -1 70 3.7053525447845459e-02</internalNodes>
          <leafValues>
            3.2229766249656677e-01 -9.1100335121154785e-01</leafValues></_></weakClassifiers></_>
    <!-- stage 6 -->
    <_>
      <maxWeakCount>5</maxWeakCount>
      <stageThreshold>-2.6409289240837097e-01</stageThreshold>
      <weakClassifiers>
        <_>
          <internalNodes>
            0 -1 99 -3.1638285145163536e-03</internalNodes>
          <leafValues>
            7.1951222419738770e-01 -5.3658539056777954e-01</leafValues></_>
        <_>
          <internalNodes>
            0 -1 32 9.9161639809608459e-03</internalNodes>
          <leafValues>
            -5.1036047935485840e-01 7.4899798631668091e-01</leafValues></_>
        <_>
          <internalNodes>
            0 -1 9 4.3465197086334229e-02</internalNodes>
          <leafValues>
            -3.7828361988067627e-01 9.0021437406539917e-01</leafValues></_>
        <_>
          <internalNodes>
            0 -1 44 -9.2864306643605232e-03</internalNodes>
          <leafValues>
            5.7449358701705933e-01 -6.4216220378875732e-01</leafValues></_>
        <_>
          <internalNodes>
            0 -1 84 4.5008602319285274e-04</internalNodes>
          <leafValues>
            -5.4338145256042480e-01 5.8664298057556152e-01</leafValues></_></weakClassifiers></_>
    <!-- stage 7 -->
    <_>
      <maxWeakCount>8</maxWeakCount>
      <stageThreshold>-4.1797822713851929e-01</stageThreshold>
      <weakClassifiers>
        <_>
          <internalNodes>
            0 -1 98 -1.5013493597507477e-02</internalNodes>
          <leafValues>
            7.1428573131561279e-01 -5.8974361419677734e-01</leafValues></_>
        <_>
          <internalNodes>
            0 -1 61 9.7983535379171371e-03</internalNodes>
          <leafValues>
            -7.6701325178146362e-01 4.7948762774467468e-01</leafValues></_>
        <_>
          <internalNodes>
            0 -1 81 1.8249767599627376e-03</internalNodes>
          <leafValues>
            4.0113341808319092e-01 -8.2610040903091431e-01</leafValues></_>
        <_>
          <internalNodes>
            0 -1 83 -6.3758613541722298e-03</internalNodes>
          <leafValues>
            6.0138905048370361e-01 -5.3162157535552979e-01</leafValues></_>
        <_>
          <internalNodes>
            0 -1 64 2.0834825932979584e-02</internalNodes>
          <leafValues>
            -6.5959697961807251e-01 5.0295144319534302e-01</leafValues></_>
        <_>
          <internalNodes>
            0 -1 29 9.2766713351011276e-03</internalNodes>
          <leafValues>
            -4.4436943531036377e-01 6.9795745611190796e-01</leafValues></_>
        <_>
          <internalNodes>
            0 -1 36 1.4586363977286965e-04</internalNodes>
          <leafValues>
            -6.7260318994522095e-01 4.6882006525993347e-01</leafValues></_>
        <_>
          <internalNodes>
            0 -1 91 8.3145569078624249e-04</internalNodes>
          <leafValues>
            -5.3039842844009399e-01 5.4186475276947021e-01</leafValues></_></weakClassifiers></_>
    <!-- stage 8 -->
    <_>
      <maxWeakCount>5</maxWeakCount>
      <stageThreshold>-3.4770640730857849e-01</stageThreshold>
      <weakClassifiers>
        <_>
          <internalNodes>
            0 -1 18 4.2563343048095703e-01</internalNodes>
          <leafValues>
            -2.7868852019309998e-01 8.7096774578094482e-01</leafValues></_>
        <_>
          <internalNodes>
            0 -1 27 1.6880411654710770e-02</internalNodes>
          <leafValues>
            -7.8450018167495728e-01 5.1331770420074463e-01</leafValues></_>
        <_>
          <internalNodes>
            0 -1 6 3.8722064346075058e-03</internalNodes>
          <leafValues>
            -6.2236827611923218e-01 4.7912171483039856e-01</leafValues></_>
        <_>
          <internalNodes>
            0 -1 31 5.0750851631164551e-02</internalNodes>
          <leafValues>
            -4.0347570180892944e-01 7.9405021667480469e-01</leafValues></_>
        <_>
          <internalNodes>
            0 -1 102 1.9419306889176369e-02</internalNodes>
          <leafValues>
            -5.0981998443603516e-01 7.0699346065521240e-01</leafValues></_></weakClassifiers></_>
    <!-- stage 9 -->
    <_>
      <maxWeakCount>5</maxWeakCount>
      <stageThreshold>-4.0798869729042053e-01</stageThreshold>
      <weakClassifiers>
        <_>
          <internalNodes>
            0 -1 2 1.7566841840744019e-01</internalNodes>
          <leafValues>
            -3.4579437971115112e-01 7.9856115579605103e-01</leafValues></_>
        <_>
          <internalNodes>
            0 -1 41 9.9261254072189331e-02</internalNodes>
          <leafValues>
            -3.6895388364791870e-01 8.3496278524398804e-01</leafValues></_>
        <_>
          <internalNodes>
            0 -1 122 -3.3866606652736664e-02</internalNodes>
          <leafValues>
            8.8998514413833618e-01 -3.5146859288215637e-01</leafValues></_>
        <_>
          <internalNodes>
            0 -1 34 -1.6700159758329391e-02</internalNodes>
          <leafValues>
            -7.2469705343246460e-01 4.2229834198951721e-01</leafValues></_>
        <_>
          <internalNodes>
            0 -1 89 2.9867501929402351e-02</internalNodes>
          <leafValues>
            2.3592981696128845e-01 -1.</leafValues></_></weakClassifiers></_>
    <!-- stage 10 -->
    <_>
      <maxWeakCount>5</maxWeakCount>
      <stageThreshold>-1.1602398157119751e+00</stageThreshold>
      <weakClassifiers>
        <_>
          <internalNodes>
            0 -1 30 -3.1765900552272797e-02</internalNodes>
          <leafValues>
            -7.6623374223709106e-01 7.8698223829269409e-01</leafValues></_>
        <_>
          <internalNodes>
            0 -1 26 2.0630760118365288e-03</internalNodes>
          <leafValues>
            -9.1159820556640625e-01 4.6174922585487366e-01</leafValues></_>
        <_>
          <internalNodes>
            0 -1 45 8.9205597760155797e-05</internalNodes>
          <leafValues>
            -5.7537168264389038e-01 6.3672620058059692e-01</leafValues></_>
        <_>
          <internalNodes>
            0 -1 105 4.5101977884769440e-03</internalNodes>
          <leafValues>
            -6.1236631870269775e-01 6.0382419824600220e-01</leafValues></_>
        <_>
          <internalNodes>
            0 -1 35 -5.9335100650787354e-01</internalNodes>
          <leafValues>
            -1. 3.3198276162147522e-01</leafValues></_></weakClassifiers></_>
    <!-- stage 11 -->
    <_>
      <maxWeakCount>5</maxWeakCount>
      <stageThreshold>-3.5236215591430664e-01</stageThreshold>
      <weakClassifiers>
        <_>
          <internalNodes>
            0 -1 56 2.2727927193045616e-02</internalNodes>
          <leafValues>
            -2.5862067937850952e-01 8.0000001192092896e-01</leafValues></_>
        <_>
          <internalNodes>
            0 -1 1 2.3589257895946503e-01</internalNodes>
          <leafValues>
            -5.5094492435455322e-01 6.2250322103500366e-01</leafValues></_>
        <_>
          <internalNodes>
            0 -1 109 -8.1361159682273865e-03</internalNodes>
          <leafValues>
            4.7383493185043335e-01 -6.0610854625701904e-01</leafValues></_>
        <_>
          <internalNodes>
            0 -1 57 -3.7666360731236637e-04</internalNodes>
          <leafValues>
            -5.9914892911911011e-01 4.2646858096122742e-01</leafValues></_>
        <_>
          <internalNodes>
            0 -1 39 1.6692420467734337e-02</internalNodes>
          <leafValues>
            -4.4310006499290466e-01 5.9612971544265747e-01</leafValues></_></weakClassifiers></_>
    <!-- stage 12 -->
    <_>
      <maxWeakCount>4</maxWeakCount>
      <stageThreshold>-3.9891585707664490e-01</stageThreshold>
      <weakClassifiers>
        <_>
          <internalNodes>
            0 -1 116 -1.2442725710570812e-03</internalNodes>
          <leafValues>
            -6.0000002384185791e-01 6.9590646028518677e-01</leafValues></_>
        <_>
          <internalNodes>
            0 -1 103 1.9887587055563927e-02</internalNodes>
          <leafValues>
            -6.3466328382492065e-01 6.1276060342788696e-01</leafValues></_>
        <_>
          <internalNodes>
            0 -1 59 -7.2576031088829041e-03</internalNodes>
          <leafValues>
            -7.8616213798522949e-01 3.8501277565956116e-01</leafValues></_>
        <_>
          <internalNodes>
            0 -1 68 -9.9222117569297552e-04</internalNodes>
          <leafValues>
            -7.3509651422500610e-01 4.5073461532592773e-01</leafValues></_></weakClassifiers></_>
    <!-- stage 13 -->
    <_>
      <maxWeakCount>5</maxWeakCount>
      <stageThreshold>-3.9351722598075867e-01</stageThreshold>
      <weakClassifiers>
        <_>
          <internalNodes>
            0 -1 60 -3.0239343643188477e-02</internalNodes>
          <leafValues>
            -2.1600000560283661e-01 8.3471071720123291e-01</leafValues></_>
        <_>
          <internalNodes>
            0 -1 75 5.2563301287591457e-03</internalNodes>
          <leafValues>
            -7.5464081764221191e-01 4.4909405708312988e-01</leafValues></_>
        <_>
          <internalNodes>
            0 -1 77 1.5634999144822359e-03</internalNodes>
          <leafValues>
            -5.0583416223526001e-01 6.0749864578247070e-01</leafValues></_>
        <_>
          <internalNodes>
            0 -1 25 1.3673713803291321e-01</internalNodes>
          <leafValues>
            -3.3032682538032532e-01 8.7194508314132690e-01</leafValues></_>
        <_>
          <internalNodes>
            0 -1 38 6.0835992917418480e-03</internalNodes>
          <leafValues>
            -9.0378308296203613e-01 3.9229440689086914e-01</leafValues></_></weakClassifiers></_>
    <!-- stage 14 -->
    <_>
      <maxWeakCount>5</maxWeakCount>
      <stageThreshold>-4.8434174060821533e-01</stageThreshold>
      <weakClassifiers>
        <_>
          <internalNodes>
            0 -1 23 -1.1694451794028282e-02</internalNodes>
          <leafValues>
            7.9527556896209717e-01 -2.2689075767993927e-01</leafValues></_>
        <_>
          <internalNodes>
            0 -1 111 -1.2201671302318573e-01</internalNodes>
          <leafValues>
            8.0834519863128662e-01 -2.4363188445568085e-01</leafValues></_>
        <_>
          <internalNodes>
            0 -1 124 -8.3472870755940676e-05</internalNodes>
          <leafValues>
            -4.9358937144279480e-01 5.0270086526870728e-01</leafValues></_>
        <_>
          <internalNodes>
            0 -1 87 -9.2587340623140335e-03</internalNodes>
          <leafValues>
            2.7861383557319641e-01 -7.9093819856643677e-01</leafValues></_>
        <_>
          <internalNodes>
            0 -1 79 -4.5529752969741821e-03</internalNodes>
          <leafValues>
            -7.9513376951217651e-01 2.4415020644664764e-01</leafValues></_></weakClassifiers></_>
    <!-- stage 15 -->
    <_>
      <maxWeakCount>5</maxWeakCount>
      <stageThreshold>-7.0496606826782227e-01</stageThreshold>
      <weakClassifiers>
        <_>
          <internalNodes>
            0 -1 19 -5.3660176694393158e-02</internalNodes>
          <leafValues>
            -5.9139782190322876e-01 8.4313726425170898e-01</leafValues></_>
        <_>
          <internalNodes>
            0 -1 42 -1.6591558232903481e-03</internalNodes>
          <leafValues>
            -8.8776743412017822e-01 4.7965323925018311e-01</leafValues></_>
        <_>
          <internalNodes>
            0 -1 120 -9.1305091977119446e-02</internalNodes>
          <leafValues>
            -4.8090064525604248e-01 8.0234909057617188e-01</leafValues></_>
        <_>
          <internalNodes>
            0 -1 10 1.9804030656814575e-01</internalNodes>
          <leafValues>
            -5.4433804750442505e-01 6.6893213987350464e-01</leafValues></_>
        <_>
          <internalNodes>
            0 -1 88 -8.4088696166872978e-04</internalNodes>
          <leafValues>
            -8.1791156530380249e-01 4.3201723694801331e-01</leafValues></_></weakClassifiers></_>
    <!-- stage 16 -->
    <_>
      <maxWeakCount>6</maxWeakCount>
      <stageThreshold>-2.2604535520076752e-01</stageThreshold>
      <weakClassifiers>
        <_>
          <internalNodes>
            0 -1 78 -1.7217500135302544e-02</internalNodes>
          <leafValues>
            6.8098157644271851e-01 -4.4578313827514648e-01</leafValues></_>
        <_>
          <internalNodes>
            0 -1 113 -5.0691645592451096e-03</internalNodes>
          <leafValues>
            6.7689812183380127e-01 -4.9759846925735474e-01</leafValues></_>
        <_>
          <internalNodes>
            0 -1 121 -6.7920535802841187e-03</internalNodes>
          <leafValues>
            -8.2206600904464722e-01 3.8640990853309631e-01</leafValues></_>
        <_>
          <internalNodes>
            0 -1 46 3.9550930261611938e-02</internalNodes>
          <leafValues>
            -3.4850671887397766e-01 7.5112354755401611e-01</leafValues></_>
        <_>
          <internalNodes>
            0 -1 104 2.2159693762660027e-03</internalNodes>
          <leafValues>
            3.8069361448287964e-01 -5.7830935716629028e-01</leafValues></_>
        <_>
          <internalNodes>
            0 -1 125 1.7928506713360548e-04</internalNodes>
          <leafValues>
            -7.0590168237686157e-01 3.3271872997283936e-01</leafValues></_></weakClassifiers></_>
    <!-- stage 17 -->
    <_>
      <maxWeakCount>7</maxWeakCount>
      <stageThreshold>-8.3156645298004150e-01</stageThreshold>
      <weakClassifiers>
        <_>
          <internalNodes>
            0 -1 17 4.7972988337278366e-02</internalNodes>
          <leafValues>
            -1.9672131538391113e-01 7.9032260179519653e-01</leafValues></_>
        <_>
          <internalNodes>
            0 -1 33 2.6899171061813831e-03</internalNodes>
          <leafValues>
            -4.5304712653160095e-01 5.2076083421707153e-01</leafValues></_>
        <_>
          <internalNodes>
            0 -1 0 6.7067146301269531e-02</internalNodes>
          <leafValues>
            -3.9817926287651062e-01 5.7538568973541260e-01</leafValues></_>
        <_>
          <internalNodes>
            0 -1 112 -5.3976120398147032e-05</internalNodes>
          <leafValues>
            3.8503110408782959e-01 -6.8507426977157593e-01</leafValues></_>
        <_>
          <internalNodes>
            0 -1 69 -1.6393542755395174e-03</internalNodes>
          <leafValues>
            -9.0241050720214844e-01 2.0796263217926025e-01</leafValues></_>
        <_>
          <internalNodes>
            0 -1 115 9.0445093810558319e-03</internalNodes>
          <leafValues>
            -5.7661330699920654e-01 3.6042541265487671e-01</leafValues></_>
        <_>
          <internalNodes>
            0 -1 8 -7.4708163738250732e-03</internalNodes>
          <leafValues>
            -7.6652950048446655e-01 2.9629820585250854e-01</leafValues></_></weakClassifiers></_>
    <!-- stage 18 -->
    <_>
      <maxWeakCount>5</maxWeakCount>
      <stageThreshold>-2.4370372295379639e-01</stageThreshold>
      <weakClassifiers>
        <_>
          <internalNodes>
            0 -1 3 -7.1201398968696594e-02</internalNodes>
          <leafValues>
            -2.2689075767993927e-01 7.9527556896209717e-01</leafValues></_>
        <_>
          <internalNodes>
            0 -1 94 -5.1262430846691132e-02</internalNodes>
          <leafValues>
            -8.1984418630599976e-01 3.8300630450248718e-01</leafValues></_>
        <_>
          <internalNodes>
            0 -1 22 6.9345459342002869e-02</internalNodes>
          <leafValues>
            -3.3657300472259521e-01 8.2295656204223633e-01</leafValues></_>
        <_>
          <internalNodes>
            0 -1 43 1.3617801596410573e-04</internalNodes>
          <leafValues>
            -6.0220789909362793e-01 3.8692006468772888e-01</leafValues></_>
        <_>
          <internalNodes>
            0 -1 74 -1.4762188494205475e-01</internalNodes>
          <leafValues>
            -2.6948219537734985e-01 8.5077226161956787e-01</leafValues></_></weakClassifiers></_>
    <!-- stage 19 -->
    <_>
      <maxWeakCount>7</maxWeakCount>
      <stageThreshold>-6.5811425447463989e-01</stageThreshold>
      <weakClassifiers>
        <_>
          <internalNodes>
            0 -1 95 -2.7350508389645256e-05</internalNodes>
          <leafValues>
            -4.7692307829856873e-01 5.8011049032211304e-01</leafValues></_>
        <_>
          <internalNodes>
            0 -1 108 2.7379165403544903e-03</internalNodes>
          <leafValues>
            -5.8016586303710938e-01 4.6050429344177246e-01</leafValues></_>
        <_>
          <internalNodes>
            0 -1 107 1.2128612026572227e-02</internalNodes>
          <leafValues>
            3.7316936254501343e-01 -7.5201451778411865e-01</leafValues></_>
        <_>
          <internalNodes>
            0 -1 55 1.1365059763193130e-02</internalNodes>
          <leafValues>
            -4.1693565249443054e-01 6.0560816526412964e-01</leafValues></_>
        <_>
          <internalNodes>
            0 -1 13 -3.7802162114530802e-03</internalNodes>
          <leafValues>
            -9.2215067148208618e-01 2.4864386022090912e-01</leafValues></_>
        <_>
          <internalNodes>
            0 -1 117 1.9657481461763382e-02</internalNodes>
          <leafValues>
            -3.0364170670509338e-01 9.6307235956192017e-01</leafValues></_>
        <_>
          <internalNodes>
            0 -1 73 3.8164964644238353e-04</internalNodes>
          <leafValues>
            -4.7478109598159790e-01 5.6858539581298828e-01</leafValues></_></weakClassifiers></_>
    <!-- stage 20 -->
    <_>
      <maxWeakCount>5</maxWeakCount>
      <stageThreshold>-7.2045522928237915e-01</stageThreshold>
      <weakClassifiers>
        <_>
          <internalNodes>
            0 -1 66 3.2742768526077271e-02</internalNodes>
          <leafValues>
            -2.8155338764190674e-01 7.2027969360351563e-01</leafValues></_>
        <_>
          <internalNodes>
            0 -1 67 2.2039789473637938e-04</internalNodes>
          <leafValues>
            -5.3867322206497192e-01 5.4545760154724121e-01</leafValues></_>
        <_>
          <internalNodes>
            0 -1 71 -5.6641604751348495e-03</internalNodes>
          <leafValues>
            -8.5747045278549194e-01 2.6947349309921265e-01</leafValues></_>
        <_>
          <internalNodes>
            0 -1 82 -1.1435784399509430e-03</internalNodes>
          <leafValues>
            -7.2859388589859009e-01 2.8957515954971313e-01</leafValues></_>
        <_>
          <internalNodes>
            0 -1 119 4.1187661699950695e-03</internalNodes>
          <leafValues>
            -4.5927730202674866e-01 5.4008346796035767e-01</leafValues></_></weakClassifiers></_>
    <!-- stage 21 -->
    <_>
      <maxWeakCount>5</maxWeakCount>
      <stageThreshold>-2.9649853706359863e-01</stageThreshold>
      <weakClassifiers>
        <_>
          <internalNodes>
            0 -1 62 1.5721553936600685e-03</internalNodes>
          <leafValues>
            -7.5000000000000000e-01 5.0485438108444214e-01</leafValues></_>
        <_>
          <internalNodes>
            0 -1 97 3.2438052585348487e-04</internalNodes>
          <leafValues>
            -5.6565690040588379e-01 4.1317212581634521e-01</leafValues></_>
        <_>
          <internalNodes>
            0 -1 24 9.3513086438179016e-02</internalNodes>
          <leafValues>
            -5.4204684495925903e-01 4.5550486445426941e-01</leafValues></_>
        <_>
          <internalNodes>
            0 -1 53 2.0741004496812820e-02</internalNodes>
          <leafValues>
            -6.3263922929763794e-01 3.8942837715148926e-01</leafValues></_>
        <_>
          <internalNodes>
            0 -1 90 3.9921184070408344e-03</internalNodes>
          <leafValues>
            1.9294777512550354e-01 -9.6273273229598999e-01</leafValues></_></weakClassifiers></_>
    <!-- stage 22 -->
    <_>
      <maxWeakCount>7</maxWeakCount>
      <stageThreshold>-7.3793077468872070e-01</stageThreshold>
      <weakClassifiers>
        <_>
          <internalNodes>
            0 -1 37 -1.6524493694305420e-02</internalNodes>
          <leafValues>
            6.2874251604080200e-01 -3.9240506291389465e-01</leafValues></_>
        <_>
          <internalNodes>
            0 -1 0 7.7280975878238678e-02</internalNodes>
          <leafValues>
            -3.6330214142799377e-01 6.1766397953033447e-01</leafValues></_>
        <_>
          <internalNodes>
            0 -1 101 6.0188584029674530e-03</internalNodes>
          <leafValues>
            2.5269141793251038e-01 -8.6409634351730347e-01</leafValues></_>
        <_>
          <internalNodes>
            0 -1 86 1.2430612696334720e-04</internalNodes>
          <leafValues>
            -6.4425575733184814e-01 3.0750176310539246e-01</leafValues></_>
        <_>
          <internalNodes>
            0 -1 118 5.1160775125026703e-02</internalNodes>
          <leafValues>
            -3.4115701913833618e-01 6.1320966482162476e-01</leafValues></_>
        <_>
          <internalNodes>
            0 -1 96 -1.1710742488503456e-02</internalNodes>
          <leafValues>
            -4.0638589859008789e-01 4.9141767621040344e-01</leafValues></_>
        <_>
          <internalNodes>
            0 -1 80 2.3882043024059385e-04</internalNodes>
          <leafValues>
            -7.7844911813735962e-01 2.6696500182151794e-01</leafValues></_></weakClassifiers></_>
    <!-- stage 23 -->
    <_>
      <maxWeakCount>8</maxWeakCount>
      <stageThreshold>-4.4061166048049927e-01</stageThreshold>
      <weakClassifiers>
        <_>
          <internalNodes>
            0 -1 65 -7.4085965752601624e-03</internalNodes>
          <leafValues>
            -5.5555558204650879e-01 5.4166668653488159e-01</leafValues></_>
        <_>
          <internalNodes>
            0 -1 47 2.6798114180564880e-02</internalNodes>
          <leafValues>
            -2.1169452369213104e-01 9.0014952421188354e-01</leafValues></_>
        <_>
          <internalNodes>
            0 -1 123 6.6179467830806971e-04</internalNodes>
          <leafValues>
            -4.3804156780242920e-01 4.9431720376014709e-01</leafValues></_>
        <_>
          <internalNodes>
            0 -1 28 5.1976642571389675e-03</internalNodes>
          <leafValues>
            3.5652559995651245e-01 -5.8688855171203613e-01</leafValues></_>
        <_>
          <internalNodes>
            0 -1 5 1.2532984837889671e-02</internalNodes>
          <leafValues>
            -3.8833728432655334e-01 5.9575784206390381e-01</leafValues></_>
        <_>
          <internalNodes>
            0 -1 76 1.6881600022315979e-02</internalNodes>
          <leafValues>
            -6.9786721467971802e-01 2.7455562353134155e-01</leafValues></_>
        <_>
          <internalNodes>
            0 -1 15 2.6553189381957054e-03</internalNodes>
          <leafValues>
            2.4783888459205627e-01 -7.6077628135681152e-01</leafValues></_>
        <_>
          <internalNodes>
            0 -1 100 2.7951863594353199e-03</internalNodes>
          <leafValues>
            -5.7576042413711548e-01 3.0967265367507935e-01</leafValues></_></weakClassifiers></_>
    <!-- stage 24 -->
    <_>
      <maxWeakCount>6</maxWeakCount>
      <stageThreshold>-3.7297067046165466e-01</stageThreshold>
      <weakClassifiers>
        <_>
          <internalNodes>
            0 -1 50 -8.9593641459941864e-03</internalNodes>
          <leafValues>
            7.0422536134719849e-01 -2.5000000000000000e-01</leafValues></_>
        <_>
          <internalNodes>
            0 -1 92 1.3360213488340378e-03</internalNodes>
          <leafValues>
            4.5849543809890747e-01 -4.6873980760574341e-01</leafValues></_>
        <_>
          <internalNodes>
            0 -1 16 -8.8590905070304871e-03</internalNodes>
          <leafValues>
            -2.8000664710998535e-01 8.2213068008422852e-01</leafValues></_>
        <_>
          <internalNodes>
            0 -1 14 -5.0656259059906006e-02</internalNodes>
          <leafValues>
            4.0933778882026672e-01 -5.1870357990264893e-01</leafValues></_>
        <_>
          <internalNodes>
            0 -1 93 3.6091521382331848e-02</internalNodes>
          <leafValues>
            1.4720125496387482e-01 -1.</leafValues></_>
        <_>
          <internalNodes>
            0 -1 110 2.4251643568277359e-02</internalNodes>
          <leafValues>
            1.5613225102424622e-01 -8.5799849033355713e-01</leafValues></_></weakClassifiers></_></stages>
  <features>
    <_>
      <rects>
        <_>
          0 0 6 12 -1.</_>
        <_>
          3 0 3 12 2.</_></rects>
      <tilted>0</tilted></_>
    <_>
      <rects>
        <_>
          0 0 20 18 -1.</_>
        <_>
          5 0 10 18 2.</_></rects>
      <tilted>0</tilted></_>
    <_>
      <rects>
        <_>
          0 0 10 20 -1.</_>
        <_>
          5 0 5 20 2.</_></rects>
      <tilted>0</tilted></_>
    <_>
      <rects>
        <_>
          0 0 18 2 -1.</_>
        <_>
          6 0 6 2 2.</_></rects>
      <tilted>0</tilted></_>
    <_>
      <rects>
        <_>
          0 0 7 9 -1.</_>
        <_>
          0 3 7 3 2.</_></rects>
      <tilted>0</tilted></_>
    <_>
      <rects>
        <_>
          0 0 16 2 -1.</_>
        <_>
          0 1 16 1 2.</_></rects>
      <tilted>0</tilted></_>
    <_>
      <rects>
        <_>
          0 0 17 2 -1.</_>
        <_>
          0 1 17 1 2.</_></rects>
      <tilted>0</tilted></_>
    <_>
      <rects>
        <_>
          0 1 20 18 -1.</_>
        <_>
          5 1 10 18 2.</_></rects>
      <tilted>0</tilted></_>
    <_>
      <rects>
        <_>
          0 3 2 8 -1.</_>
        <_>
          0 5 2 4 2.</_></rects>
      <tilted>0</tilted></_>
    <_>
      <rects>
        <_>
          0 3 20 1 -1.</_>
        <_>
          5 3 10 1 2.</_></rects>
      <tilted>0</tilted></_>
    <_>
      <rects>
        <_>
          0 6 20 14 -1.</_>
        <_>
          5 6 10 14 2.</_></rects>
      <tilted>0</tilted></_>
    <_>
      <rects>
        <_>
          0 6 20 8 -1.</_>
        <_>
          0 8 20 4 2.</_></rects>
      <tilted>0</tilted></_>
    <_>
      <rects>
        <_>
          0 7 20 13 -1.</_>
        <_>
          5 7 10 13 2.</_></rects>
      <tilted>0</tilted></_>
    <_>
      <rects>
        <_>
          0 8 8 8 -1.</_>
        <_>
          0 10 8 4 2.</_></rects>
      <tilted>0</tilted></_>
    <_>
      <rects>
        <_>
          0 8 17 12 -1.</_>
        <_>
          0 14 17 6 2.</_></rects>
      <tilted>0</tilted></_>
    <_>
      <rects>
        <_>
          0 18 7 2 -1.</_>
        <_>
          0 19 7 1 2.</_></rects>
      <tilted>0</tilted></_>
    <_>
      <rects>
        <_>
          1 0 2 3 -1.</_>
        <_>
          1 1 2 1 2.</_></rects>
      <tilted>0</tilted></_>
    <_>
      <rects>
        <_>
          1 0 10 3 -1.</_>
        <_>
          6 0 5 3 2.</_></rects>
      <tilted>0</tilted></_>
    <_>
      <rects>
        <_>
          1 0 18 9 -1.</_>
        <_>
          7 3 6 3 9.</_></rects>
      <tilted>0</tilted></_>
    <_>
      <rects>
        <_>
          1 1 1 12 -1.</_>
        <_>
          1 5 1 4 2.</_></rects>
      <tilted>0</tilted></_>
    <_>
      <rects>
        <_>
          1 1 18 3 -1.</_>
        <_>
          7 2 6 1 9.</_></rects>
      <tilted>0</tilted></_>
    <_>
      <rects>
        <_>
          1 2 4 12 -1.</_>
        <_>
          3 2 2 12 2.</_></rects>
      <tilted>0</tilted></_>
    <_>
      <rects>
        <_>
          1 2 4 18 -1.</_>
        <_>
          3 2 2 18 2.</_></rects>
      <tilted>0</tilted></_>
    <_>
      <rects>
        <_>
          1 4 6 4 -1.</_>
        <_>
          1 4 3 2 2.</_>
        <_>
          4 6 3 2 2.</_></rects>
      <tilted>0</tilted></_>
    <_>
      <rects>
        <_>
          1 4 16 16 -1.</_>
        <_>
          5 4 8 16 2.</_></rects>
      <tilted>0</tilted></_>
    <_>
      <rects>
        <_>
          1 6 6 14 -1.</_>
        <_>
          4 6 3 14 2.</_></rects>
      <tilted>0</tilted></_>
    <_>
      <rects>
        <_>
          1 7 8 4 -1.</_>
        <_>
          1 9 8 2 2.</_></rects>
      <tilted>0</tilted></_>
    <_>
      <rects>
        <_>
          1 8 14 8 -1.</_>
        <_>
          1 10 14 4 2.</_></rects>
      <tilted>0</tilted></_>
    <_>
      <rects>
        <_>
          1 10 7 4 -1.</_>
        <_>
          1 11 7 2 2.</_></rects>
      <tilted>0</tilted></_>
    <_>
      <rects>
        <_>
          1 11 6 1 -1.</_>
        <_>
          4 11 3 1 2.</_></rects>
      <tilted>0</tilted></_>
    <_>
      <rects>
        <_>
          1 13 1 6 -1.</_>
        <_>
          1 15 1 2 2.</_></rects>
      <tilted>0</tilted></_>
    <_>
      <rects>
        <_>
          1 13 6 7 -1.</_>
        <_>
          4 13 3 7 2.</_></rects>
      <tilted>0</tilted></_>
    <_>
      <rects>
        <_>
          1 14 12 6 -1.</_>
        <_>
          1 14 6 3 2.</_>
        <_>
          7 17 6 3 2.</_></rects>
      <tilted>0</tilted></_>
    <_>
      <rects>
        <_>
          1 15 10 4 -1.</_>
        <_>
          1 15 5 2 2.</_>
        <_>
          6 17 5 2 2.</_></rects>
      <tilted>0</tilted></_>
    <_>
      <rects>
        <_>
          1 19 3 1 -1.</_>
        <_>
          2 19 1 1 2.</_></rects>
      <tilted>0</tilted></_>
    <_>
      <rects>
        <_>
          2 1 18 2 -1.</_>
        <_>
          8 1 6 2 2.</_></rects>
      <tilted>0</tilted></_>
    <_>
      <rects>
        <_>
          2 2 9 4 -1.</_>
        <_>
          2 3 9 2 2.</_></rects>
      <tilted>0</tilted></_>
    <_>
      <rects>
        <_>
          2 3 15 4 -1.</_>
        <_>
          2 5 15 2 2.</_></rects>
      <tilted>0</tilted></_>
    <_>
      <rects>
        <_>
          2 7 6 8 -1.</_>
        <_>
          2 9 6 4 2.</_></rects>
      <tilted>0</tilted></_>
    <_>
      <rects>
        <_>
          2 12 8 8 -1.</_>
        <_>
          2 12 4 4 2.</_>
        <_>
          6 16 4 4 2.</_></rects>
      <tilted>0</tilted></_>
    <_>
      <rects>
        <_>
          2 18 18 2 -1.</_>
        <_>
          8 18 6 2 2.</_></rects>
      <tilted>0</tilted></_>
    <_>
      <rects>
        <_>
          3 0 13 8 -1.</_>
        <_>
          3 2 13 4 2.</_></rects>
      <tilted>0</tilted></_>
    <_>
      <rects>
        <_>
          3 4 1 2 -1.</_>
        <_>
          3 5 1 1 2.</_></rects>
      <tilted>0</tilted></_>
    <_>
      <rects>
        <_>
          3 9 4 2 -1.</_>
        <_>
          3 9 2 1 2.</_>
        <_>
          5 10 2 1 2.</_></rects>
      <tilted>0</tilted></_>
    <_>
      <rects>
        <_>
          3 10 7 8 -1.</_>
        <_>
          3 14 7 4 2.</_></rects>
      <tilted>0</tilted></_>
    <_>
      <rects>
        <_>
          3 12 4 1 -1.</_>
        <_>
          4 12 2 1 2.</_></rects>
      <tilted>0</tilted></_>
    <_>
      <rects>
        <_>
          3 18 16 2 -1.</_>
        <_>
          7 18 8 2 2.</_></rects>
      <tilted>0</tilted></_>
    <_>
      <rects>
        <_>
          3 19 16 1 -1.</_>
        <_>
          7 19 8 1 2.</_></rects>
      <tilted>0</tilted></_>
    <_>
      <rects>
        <_>
          4 0 15 9 -1.</_>
        <_>
          9 3 5 3 9.</_></rects>
      <tilted>0</tilted></_>
    <_>
      <rects>
        <_>
          4 0 12 8 -1.</_>
        <_>
          4 2 12 4 2.</_></rects>
      <tilted>0</tilted></_>
    <_>
      <rects>
        <_>
          4 1 15 4 -1.</_>
        <_>
          3 2 15 2 2.</_></rects>
      <tilted>1</tilted></_>
    <_>
      <rects>
        <_>
          4 6 15 4 -1.</_>
        <_>
          4 8 15 2 2.</_></rects>
      <tilted>0</tilted></_>
    <_>
      <rects>
        <_>
          4 7 4 4 -1.</_>
        <_>
          4 9 4 2 2.</_></rects>
      <tilted>0</tilted></_>
    <_>
      <rects>
        <_>
          4 7 7 8 -1.</_>
        <_>
          4 9 7 4 2.</_></rects>
      <tilted>0</tilted></_>
    <_>
      <rects>
        <_>
          4 9 4 4 -1.</_>
        <_>
          4 10 4 2 2.</_></rects>
      <tilted>0</tilted></_>
    <_>
      <rects>
        <_>
          4 19 12 1 -1.</_>
        <_>
          7 19 6 1 2.</_></rects>
      <tilted>0</tilted></_>
    <_>
      <rects>
        <_>
          5 0 3 8 -1.</_>
        <_>
          5 2 3 4 2.</_></rects>
      <tilted>0</tilted></_>
    <_>
      <rects>
        <_>
          5 1 4 1 -1.</_>
        <_>
          6 1 2 1 2.</_></rects>
      <tilted>0</tilted></_>
    <_>
      <rects>
        <_>
          5 3 14 8 -1.</_>
        <_>
          5 5 14 4 2.</_></rects>
      <tilted>0</tilted></_>
    <_>
      <rects>
        <_>
          5 4 2 14 -1.</_>
        <_>
          5 11 2 7 2.</_></rects>
      <tilted>0</tilted></_>
    <_>
      <rects>
        <_>
          5 6 9 2 -1.</_>
        <_>
          8 6 3 2 2.</_></rects>
      <tilted>0</tilted></_>
    <_>
      <rects>
        <_>
          6 0 8 15 -1.</_>
        <_>
          8 0 4 15 2.</_></rects>
      <tilted>0</tilted></_>
    <_>
      <rects>
        <_>
          6 1 8 1 -1.</_>
        <_>
          8 3 4 1 2.</_></rects>
      <tilted>1</tilted></_>
    <_>
      <rects>
        <_>
          6 1 8 9 -1.</_>
        <_>
          8 1 4 9 2.</_></rects>
      <tilted>0</tilted></_>
    <_>
      <rects>
        <_>
          6 1 12 3 -1.</_>
        <_>
          10 2 4 1 9.</_></rects>
      <tilted>0</tilted></_>
    <_>
      <rects>
        <_>
          6 3 6 6 -1.</_>
        <_>
          6 3 3 3 2.</_>
        <_>
          9 6 3 3 2.</_></rects>
      <tilted>0</tilted></_>
    <_>
      <rects>
        <_>
          6 6 13 4 -1.</_>
        <_>
          6 8 13 2 2.</_></rects>
      <tilted>0</tilted></_>
    <_>
      <rects>
        <_>
          7 0 3 1 -1.</_>
        <_>
          8 1 1 1 3.</_></rects>
      <tilted>1</tilted></_>
    <_>
      <rects>
        <_>
          7 0 1 3 -1.</_>
        <_>
          6 1 1 1 3.</_></rects>
      <tilted>1</tilted></_>
    <_>
      <rects>
        <_>
          7 1 4 1 -1.</_>
        <_>
          8 1 2 1 2.</_></rects>
      <tilted>0</tilted></_>
    <_>
      <rects>
        <_>
          7 2 5 14 -1.</_>
        <_>
          7 9 5 7 2.</_></rects>
      <tilted>0</tilted></_>
    <_>
      <rects>
        <_>
          7 3 8 12 -1.</_>
        <_>
          7 3 4 6 2.</_>
        <_>
          11 9 4 6 2.</_></rects>
      <tilted>0</tilted></_>
    <_>
      <rects>
        <_>
          7 4 6 4 -1.</_>
        <_>
          7 6 6 2 2.</_></rects>
      <tilted>0</tilted></_>
    <_>
      <rects>
        <_>
          7 6 4 2 -1.</_>
        <_>
          7 6 2 1 2.</_>
        <_>
          9 7 2 1 2.</_></rects>
      <tilted>0</tilted></_>
    <_>
      <rects>
        <_>
          8 1 12 5 -1.</_>
        <_>
          12 1 4 5 2.</_></rects>
      <tilted>0</tilted></_>
    <_>
      <rects>
        <_>
          8 2 12 10 -1.</_>
        <_>
          8 2 6 5 2.</_>
        <_>
          14 7 6 5 2.</_></rects>
      <tilted>0</tilted></_>
    <_>
      <rects>
        <_>
          8 5 8 7 -1.</_>
        <_>
          10 7 4 7 2.</_></rects>
      <tilted>1</tilted></_>
    <_>
      <rects>
        <_>
          8 6 2 5 -1.</_>
        <_>
          9 6 1 5 2.</_></rects>
      <tilted>0</tilted></_>
    <_>
      <rects>
        <_>
          8 6 4 7 -1.</_>
        <_>
          8 6 2 7 2.</_></rects>
      <tilted>1</tilted></_>
    <_>
      <rects>
        <_>
          8 6 6 8 -1.</_>
        <_>
          8 6 3 4 2.</_>
        <_>
          11 10 3 4 2.</_></rects>
      <tilted>0</tilted></_>
    <_>
      <rects>
        <_>
          9 0 4 3 -1.</_>
        <_>
          8 1 4 1 3.</_></rects>
      <tilted>1</tilted></_>
    <_>
      <rects>
        <_>
          9 1 1 2 -1.</_>
        <_>
          9 1 1 1 2.</_></rects>
      <tilted>1</tilted></_>
    <_>
      <rects>
        <_>
          9 2 2 3 -1.</_>
        <_>
          10 2 1 3 2.</_></rects>
      <tilted>0</tilted></_>
    <_>
      <rects>
        <_>
          9 6 4 2 -1.</_>
        <_>
          11 6 2 2 2.</_></rects>
      <tilted>0</tilted></_>
    <_>
      <rects>
        <_>
          9 14 2 4 -1.</_>
        <_>
          9 16 2 2 2.</_></rects>
      <tilted>0</tilted></_>
    <_>
      <rects>
        <_>
          10 1 5 12 -1.</_>
        <_>
          10 5 5 4 2.</_></rects>
      <tilted>0</tilted></_>
    <_>
      <rects>
        <_>
          10 3 7 4 -1.</_>
        <_>
          10 4 7 2 2.</_></rects>
      <tilted>0</tilted></_>
    <_>
      <rects>
        <_>
          10 4 2 6 -1.</_>
        <_>
          8 6 2 2 3.</_></rects>
      <tilted>1</tilted></_>
    <_>
      <rects>
        <_>
          10 5 4 14 -1.</_>
        <_>
          10 5 2 7 2.</_>
        <_>
          12 12 2 7 2.</_></rects>
      <tilted>0</tilted></_>
    <_>
      <rects>
        <_>
          10 5 3 12 -1.</_>
        <_>
          10 11 3 6 2.</_></rects>
      <tilted>0</tilted></_>
    <_>
      <rects>
        <_>
          10 8 1 4 -1.</_>
        <_>
          10 10 1 2 2.</_></rects>
      <tilted>0</tilted></_>
    <_>
      <rects>
        <_>
          10 8 2 10 -1.</_>
        <_>
          10 8 1 5 2.</_>
        <_>
          11 13 1 5 2.</_></rects>
      <tilted>0</tilted></_>
    <_>
      <rects>
        <_>
          10 9 1 4 -1.</_>
        <_>
          9 10 1 2 2.</_></rects>
      <tilted>1</tilted></_>
    <_>
      <rects>
        <_>
          10 9 4 11 -1.</_>
        <_>
          12 9 2 11 2.</_></rects>
      <tilted>0</tilted></_>
    <_>
      <rects>
        <_>
          10 9 4 10 -1.</_>
        <_>
          10 14 4 5 2.</_></rects>
      <tilted>0</tilted></_>
    <_>
      <rects>
        <_>
          11 0 3 4 -1.</_>
        <_>
          11 1 3 2 2.</_></rects>
      <tilted>0</tilted></_>
    <_>
      <rects>
        <_>
          11 2 3 1 -1.</_>
        <_>
          12 2 1 1 2.</_></rects>
      <tilted>0</tilted></_>
    <_>
      <rects>
        <_>
          11 3 3 3 -1.</_>
        <_>
          12 4 1 1 9.</_></rects>
      <tilted>0</tilted></_>
    <_>
      <rects>
        <_>
          11 4 6 2 -1.</_>
        <_>
          13 6 2 2 3.</_></rects>
      <tilted>1</tilted></_>
    <_>
      <rects>
        <_>
          11 5 4 1 -1.</_>
        <_>
          12 6 2 1 2.</_></rects>
      <tilted>1</tilted></_>
    <_>
      <rects>
        <_>
          12 0 3 4 -1.</_>
        <_>
          11 1 3 2 2.</_></rects>
      <tilted>1</tilted></_>
    <_>
      <rects>
        <_>
          12 1 1 4 -1.</_>
        <_>
          11 2 1 2 2.</_></rects>
      <tilted>1</tilted></_>
    <_>
      <rects>
        <_>
          12 2 1 6 -1.</_>
        <_>
          12 2 1 3 2.</_></rects>
      <tilted>1</tilted></_>
    <_>
      <rects>
        <_>
          12 4 3 10 -1.</_>
        <_>
          12 9 3 5 2.</_></rects>
      <tilted>0</tilted></_>
    <_>
      <rects>
        <_>
          12 5 6 10 -1.</_>
        <_>
          12 5 3 5 2.</_>
        <_>
          15 10 3 5 2.</_></rects>
      <tilted>0</tilted></_>
    <_>
      <rects>
        <_>
          12 6 1 8 -1.</_>
        <_>
          12 10 1 4 2.</_></rects>
      <tilted>0</tilted></_>
    <_>
      <rects>
        <_>
          12 7 6 8 -1.</_>
        <_>
          12 9 6 4 2.</_></rects>
      <tilted>0</tilted></_>
    <_>
      <rects>
        <_>
          12 8 4 12 -1.</_>
        <_>
          12 14 4 6 2.</_></rects>
      <tilted>0</tilted></_>
    <_>
      <rects>
        <_>
          13 0 1 8 -1.</_>
        <_>
          13 2 1 4 2.</_></rects>
      <tilted>0</tilted></_>
    <_>
      <rects>
        <_>
          13 6 4 3 -1.</_>
        <_>
          13 6 2 3 2.</_></rects>
      <tilted>1</tilted></_>
    <_>
      <rects>
        <_>
          13 8 3 8 -1.</_>
        <_>
          11 10 3 4 2.</_></rects>
      <tilted>1</tilted></_>
    <_>
      <rects>
        <_>
          14 0 6 17 -1.</_>
        <_>
          17 0 3 17 2.</_></rects>
      <tilted>0</tilted></_>
    <_>
      <rects>
        <_>
          14 3 4 8 -1.</_>
        <_>
          15 4 2 8 2.</_></rects>
      <tilted>1</tilted></_>
    <_>
      <rects>
        <_>
          14 4 5 3 -1.</_>
        <_>
          13 5 5 1 3.</_></rects>
      <tilted>1</tilted></_>
    <_>
      <rects>
        <_>
          14 5 1 12 -1.</_>
        <_>
          11 8 1 6 2.</_></rects>
      <tilted>1</tilted></_>
    <_>
      <rects>
        <_>
          14 7 5 8 -1.</_>
        <_>
          14 9 5 4 2.</_></rects>
      <tilted>0</tilted></_>
    <_>
      <rects>
        <_>
          15 0 1 4 -1.</_>
        <_>
          14 1 1 2 2.</_></rects>
      <tilted>1</tilted></_>
    <_>
      <rects>
        <_>
          15 2 4 15 -1.</_>
        <_>
          16 2 2 15 2.</_></rects>
      <tilted>0</tilted></_>
    <_>
      <rects>
        <_>
          15 3 5 16 -1.</_>
        <_>
          15 7 5 8 2.</_></rects>
      <tilted>0</tilted></_>
    <_>
      <rects>
        <_>
          15 6 4 4 -1.</_>
        <_>
          14 7 4 2 2.</_></rects>
      <tilted>1</tilted></_>
    <_>
      <rects>
        <_>
          16 1 2 12 -1.</_>
        <_>
          16 5 2 4 2.</_></rects>
      <tilted>0</tilted></_>
    <_>
      <rects>
        <_>
          16 2 4 4 -1.</_>
        <_>
          16 4 4 2 2.</_></rects>
      <tilted>0</tilted></_>
    <_>
      <rects>
        <_>
          16 3 4 12 -1.</_>
        <_>
          18 3 2 12 2.</_></rects>
      <tilted>0</tilted></_>
    <_>
      <rects>
        <_>
          16 10 1 4 -1.</_>
        <_>
          16 10 1 2 2.</_></rects>
      <tilted>1</tilted></_>
    <_>
      <rects>
        <_>
          17 2 1 3 -1.</_>
        <_>
          16 3 1 1 3.</_></rects>
      <tilted>1</tilted></_>
    <_>
      <rects>
        <_>
          17 2 1 4 -1.</_>
        <_>
          16 3 1 2 2.</_></rects>
      <tilted>1</tilted></_></features></cascade>
</opencv_storage>
